svm_type c_svc
kernel_type rbf
gamma 1
nr_class 2
total_sv 130
rho 0.12051941093152957
label 1 0
probA -4.6113579003246778
probB 0.117517238790735
nr_sv 66 64
SV
4 1:0.775216 2:0.116569 3:0.305006 4:0.390285 5:0.412694 6:-0.45179 7:0.326421 8:-0.229315 9:0.338034 10:-0.0637255 11:0.027842 12:0.0665228 
0.50398628811957769 1:0.673626 2:0.117375 3:0.195204 4:0.364669 5:0.444298 6:-0.256757 7:-0.0346329 8:-0.171541 9:0.27499 10:-0.0455182 11:0.135189 12:0.120221 
0.433802510009139 1:0.741768 2:0.356956 3:0.388725 4:1 5:0.508911 6:-0.0818115 7:0.342804 8:0.263552 9:0.309415 10:0.0763305 11:0.638758 12:0.22402 
4 1:0.673419 2:0.312261 3:0.517038 4:0.362252 5:0.428496 6:-0.0427319 7:0.594359 8:-0.150143 9:0.358772 10:-0.0798319 11:0.230274 12:0.220664 
4 1:0.726187 2:0.466881 3:0.333193 4:0.193572 5:0.311035 6:-0.313185 7:0.570718 8:-0.125535 9:0.318955 10:-0.122549 11:-0.0244246 12:0.233849 
0.85827033840719469 1:0.724317 2:0.567143 3:0.454775 4:0.470275 5:0.532613 6:-0.124543 7:0.643302 8:0.169044 9:0.348818 10:-0.528711 11:0.253392 12:0.159535 
0.17689471098279755 1:0.75631 2:0.370646 3:0.357594 4:0.597873 5:0.582126 6:-0.0279401 7:0.068229 8:0.404422 9:0.229365 10:-0.0882353 11:0.269072 12:0.518159 
4 1:0.606731 2:0.415341 3:0.00631048 4:0.294345 5:0.343517 6:-0.388605 7:0.222729 8:-0.139087 9:0.00165906 10:0.240196 11:0.108252 12:0.228095 
0.96873774955826863 1:0.437 2:-0.228911 3:-0.256205 4:0.230063 5:0.810201 6:-1 7:0.395686 8:0.241797 9:-0.350062 10:-0.343838 11:0.611418 12:0.0454273 
0.41132270204881599 1:0.648904 2:-0.0654319 3:0.040387 4:0.207588 5:0.366869 6:-0.482104 7:0.192451 8:0.0370899 9:-0.20282 10:0.177171 11:0.137602 12:-0.271725 
0.85680415581399672 1:0.879298 2:0.591303 3:0.498528 4:0.445626 5:0.381968 6:0.0487582 7:0.474699 8:-0.608773 9:0.661551 10:-0.457283 11:0.202533 12:0.223061 
0.65942221018582681 1:0.789966 2:0.266358 3:-0.0622634 4:0.572257 5:-0.0697919 6:-0.0370709 7:0.330568 8:-0.992154 9:0.135628 10:-0.0119048 11:0.0891547 12:0.161932 
4 1:0.761089 2:0.49547 3:0.0643668 4:0.349686 5:0.267316 6:-0.302045 7:0.237246 8:-0.270685 9:0.373289 10:0.0889356 11:0.028244 12:0.173439 
0.40531092462348861 1:0.600499 2:0.073485 3:0.207404 4:0.400193 5:0.349662 6:-0.036523 7:0.29635 8:-0.25 9:-0.0207383 10:-0.922269 11:0.16474 12:0.0749131 
0.44976257980678908 1:0.748416 2:0.343266 3:0.0677324 4:0.12639 5:-1 6:-0.168006 7:0.201369 8:0.130884 9:-0.105765 10:-0.413165 11:0.441552 12:0.0216948 
1.046155674661738 1:0.674873 2:0.485001 3:-0.0660496 4:0.383277 5:0.13458 6:-0.308985 7:-0.349025 8:-0.305278 9:-0.237246 10:0.092437 11:-0.0411097 12:0.249431 
0.90302453672300032 1:0.847928 2:0.434669 3:0.0176693 4:0.349928 5:0.120885 6:-0.265705 7:0.0916632 8:-0.759986 9:-0.413107 10:0.331933 11:-0.0433209 12:0.289704 
0.90560960202618046 1:0.749662 2:0.554258 3:0.212873 4:0.38956 5:0.215697 6:-0.235391 7:-0.00207383 8:-0.39087 9:0.147657 10:-0.0336134 11:0.144839 12:0.289944 
0.41489334367831376 1:0.77854 2:0.57117 3:0.19899 4:0.414693 5:0.41129 6:0.0197224 7:0.625052 8:-0.549929 9:-0.231439 10:0.566527 11:0.336014 12:0.247033 
0.51102487727552093 1:0.815519 2:0.182203 3:0.0643668 4:0.992508 5:0.16197 6:-0.423484 7:-0.0300705 8:-0.912268 9:-0.435089 10:0.269608 11:0.0581968 12:0.08618 
1.8513911884379846 1:0.762335 2:-0.109724 3:-0.0458561 4:0.394635 5:0.220613 6:-0.211103 7:0.391539 8:-0.586662 9:-0.321858 10:0.336134 11:0.190471 12:0.228095 
0.46987993888150237 1:0.758803 2:0.321925 3:-0.0538494 4:-0.0302078 5:0.163726 6:-0.311907 7:-0.0327665 8:-0.78709 9:-0.289092 10:0.0763305 11:-0.193286 12:0.0842623 
0.17329161673938895 1:0.440116 2:-0.167304 3:-0.485907 4:0.221605 5:0.223246 6:-0.543828 7:-0.0408544 8:-0.361983 9:-0.264206 10:-0.203782 11:0.035481 12:-0.267889 
0.70228569070988289 1:0.00737509 2:-0.882021 3:-1 4:-0.0630739 5:0.173207 6:-0.58802 7:0.193696 8:0.914051 9:-0.854417 10:-0.556022 11:-0.0690522 12:-0.622917 
0.24118960221560889 1:0.457775 2:-0.54097 3:-0.648717 4:-0.634364 5:0.27592 6:-0.600804 7:0.488594 8:0.675464 9:-0.883036 10:0.00210084 11:0.285355 12:-0.848496 
0.21527685196346721 1:0.493716 2:-0.726193 3:-0.607488 4:-0.58434 5:0.182337 6:-0.619978 7:0.343633 8:0.385164 9:-0.921609 10:0.0259104 11:0.155493 12:-0.825482 
0.32530838709865706 1:0.394412 2:-0.714113 3:-0.633992 4:-0.597873 5:0.271355 6:-0.681885 7:0.35898 8:1 9:-0.77022 10:-0.397759 11:0.266057 12:-0.890927 
0.34320546278550634 1:0.354731 2:-0.607409 3:-0.844762 4:-0.481634 5:0.0380125 6:-0.687728 7:-0.0532974 8:0.452211 9:-0.976773 10:-0.0434174 11:0.0513619 12:-0.856167 
0.20860681308308646 1:0.719331 2:0.19549 3:-0.0534287 4:0.306187 5:0.210078 6:-0.381483 7:0.245749 8:-0.408702 9:-0.350477 10:0.39916 11:0.0602071 12:0.0816253 
2.0581024108153123 1:0.380077 2:0.319106 3:-0.187631 4:0.446109 5:0.348082 6:-0.156684 7:0.0881377 8:0.121612 9:0.117793 10:-0.0553221 11:-0.247161 12:0.202445 
1.0556605564950798 1:0.414148 2:0.0936179 3:-0.31931 4:0.307395 5:0.0576771 6:-0.367056 7:0.237039 8:-0.309201 9:-0.503526 10:0.261905 11:-0.0403056 12:0.184466 
1.4650998684233272 1:0.613379 2:-0.0759009 3:-0.0462768 4:0.229096 5:0.289088 6:-0.0346969 7:0.329117 8:-0.305278 9:-0.0447947 10:-0.241597 11:0.0859383 12:0.486995 
3.0133871210501719 1:0.612548 2:0.416147 3:0.0185107 4:0.191155 5:0.183917 6:-0.272644 7:0.25197 8:-0.285663 9:-0.046039 10:0.0238095 11:-0.0682481 12:0.239362 
4 1:0.621897 2:0.437487 3:0.149769 4:0.31392 5:0.263629 6:-0.119065 7:0.2219 8:-0.374822 9:-0.0344255 10:-0.196779 11:-0.222032 12:0.343162 
1.51181649491492 1:0.50161 2:0.40004 3:0.130837 4:-0.0949734 5:0.35967 6:-0.109934 7:0.417669 8:-0.250357 9:-0.234757 10:-0.247899 11:-0.165946 12:0.384154 
2.3869957764975345 1:0.17025 2:0.303805 3:-0.473706 4:0.361286 5:0.278202 6:-0.212381 7:0.281626 8:0.0595578 9:-0.0261302 10:0.103641 11:0.132375 12:0.401414 
1.2567506210461705 1:0.675081 2:0.0912019 3:0.447623 4:0.195022 5:0.593012 6:-0.240504 7:0.733513 8:0.176534 9:0.307756 10:-0.0840336 11:0.427078 12:-0.184226 
0.3285044609863994 1:0.702503 2:0.390779 3:-0.145141 4:0.326728 5:0.325257 6:-0.0871074 7:0.307756 8:-0.156919 9:-0.391539 10:-0.285714 11:-1 12:0.135323 
0.41909943665010135 1:0.738028 2:-0.0014093 3:0.00420698 4:0.462301 5:0.268019 6:-0.288349 7:0.272501 8:-0.266405 9:-0.493986 10:0.240196 11:-0.213388 12:0.17248 
1.0064185618085861 1:0.481874 2:0.365009 3:0.236012 4:0.198163 5:0.416733 6:0.124178 7:0.0846122 8:-0.327033 9:0.381999 10:0.22479 11:0.0881496 12:0.313676 
4 1:0.523008 2:0.139521 3:0.115692 4:0.175447 5:0.360197 6:0.224799 7:0.0966404 8:-0.447932 9:0.27499 10:0.293417 11:-0.0169866 12:0.371689 
0.94599656977784952 1:0.407915 2:0.382726 3:-0.026504 4:0.242388 5:0.35967 6:0.213477 7:0.134799 8:-0.384807 9:0.204065 10:0.464286 11:0.136195 12:0.419873 
4 1:0.633738 2:-0.48782 3:0.309213 4:0.22668 5:0.258889 6:0.231373 7:0.167151 8:-0.301355 9:0.267109 10:0.421569 11:0.138205 12:0.442886 
4 1:0.507219 2:0.307026 3:0.161127 4:0.260754 5:0.32789 6:0.136048 7:0.0738283 8:-0.370899 9:0.213604 10:0.514706 11:0.0459343 12:0.407887 
3.9200458042219855 1:0.6059 2:0.0972418 3:0.10265 4:0.156114 5:0.330875 6:0.189189 7:0.159685 8:-0.344151 9:0.296557 10:0.420168 11:-0.00472409 12:0.390387 
4 1:0.473979 2:0.300584 3:0.220867 4:0.211938 5:0.465016 6:-0.10756 7:0.0555786 8:-0.0545649 9:0.474492 10:0.444678 11:0.0252287 12:0.175357 
4 1:0.483951 2:-0.120596 3:0.291544 4:0.213146 5:0.329295 6:0.143535 7:0.0474907 8:-0.306348 9:0.304853 10:0.327031 11:0.0652327 12:0.372168 
4 1:0.466085 2:0.164486 3:-0.0412284 4:0.274287 5:0.378632 6:0.228086 7:0.182912 8:-0.42475 9:0.278723 10:0.442577 11:0.129762 12:0.410284 
4 1:0.5764 2:-0.0984498 3:0.219184 4:0.167714 5:0.298393 6:0.349525 7:0.289921 8:-0.396576 9:0.111572 10:0.47549 11:0.127148 12:0.614527 
4 1:0.533811 2:0.087578 3:0.280185 4:0.22958 5:0.413572 6:0.118152 7:0.0690585 8:-0.328459 9:0.375363 10:0.259804 11:0.0921701 12:0.348436 
4 1:0.521346 2:-0.027582 3:0.317627 4:0.194538 5:0.420595 6:0.080168 7:0.168602 8:-0.241441 9:0.381999 10:0.289916 11:0.120314 12:0.283951 
0.58830270758213821 1:0.526955 2:-0.216026 3:0.153976 4:0.172064 5:0.320692 6:0.121074 7:0.0559934 8:-0.398003 9:0.102032 10:0.543417 11:0.0622173 12:0.356347 
3.279620771550392 1:0.635608 2:-0.43185 3:0.320993 4:0.208797 5:0.277149 6:0.241417 7:0.0165906 8:-0.36234 9:0.308586 10:0.481092 11:0.0843301 12:0.51744 
0.40504883971387662 1:0.601745 2:-0.442722 3:0.411022 4:0.234413 5:0.348257 6:0.240139 7:0.0456242 8:-0.215763 9:0.293239 10:0.547619 11:0.120917 12:0.504015 
4 1:0.546484 2:-0.0444937 3:0.578881 4:0.268246 5:0.398472 6:0.0401753 7:-0.0481128 8:-0.134094 9:0.475321 10:0.258403 11:-0.0338728 12:0.157138 
4 1:0.391295 2:-0.0251661 3:0.345814 4:0.215321 5:0.377403 6:0.216947 7:0.0895894 8:-0.272825 9:0.115305 10:0.0413165 11:0.169364 12:0.496344 
4 1:0.441571 2:0.406885 3:0.201515 4:0.293137 5:0.369327 6:0.0403579 7:0.0360846 8:-0.28174 9:0.132725 10:0.0798319 11:0.103025 12:0.390867 
1.8180623438176338 1:0.493716 2:0.291323 3:0.0694152 4:0.186564 5:0.371258 6:0.0458364 7:0.133969 8:-0.378388 9:0.172128 10:0.289216 11:0.0320635 12:0.245595 
0.74920594109088046 1:0.462969 2:0.148782 3:0.381573 4:0.298212 5:0.602318 6:-0.0609934 7:0.0879303 8:0.0292439 9:0.525923 10:0.0840336 11:0.283747 12:0.0303248 
4 1:0.465254 2:0.358567 3:0.267564 4:0.202272 5:0.35967 6:0.00620891 7:0.0661551 8:-0.294223 9:0.23849 10:0.27451 11:0.0505578 12:0.26765 
4 1:0.509089 2:0.287296 3:0.212032 4:0.17883 5:0.370029 6:0.19832 7:0.207175 8:-0.294579 9:0.351721 10:0.39986 11:0.0421148 12:0.357545 
1.4923407917375808 1:0.630622 2:0.398832 3:0.313841 4:0.0674239 5:0.166886 6:-0.0858291 7:0.0800498 8:-0.615906 9:0.472418 10:0.478291 11:-0.0459343 12:0.166487 
4 1:0.575776 2:0.512784 3:0.300799 4:0.0355244 5:0.226231 6:-0.107378 7:0.136251 8:-0.564907 9:0.3708 10:0.368347 11:0.0543773 12:0.226897 
0.53851661204102519 1:0.7748 2:-0.00342259 3:0.829196 4:-0.0195747 5:0.243613 6:-0.0299489 7:0.188926 8:-0.519258 9:0.558275 10:0.409664 11:0.0165846 12:0.127652 
4 1:0.654306 2:-0.00664385 3:0.781658 4:0.0811986 5:0.103678 6:0.205442 7:0.205931 8:-0.399073 9:0.475736 10:0.32423 11:0.00412102 12:0.109673 
1.8780400314836827 1:0.676119 2:-0.458828 3:0.766092 4:0.0314161 5:0.0931437 6:0.241782 7:0.08399 8:-0.463267 9:0.627126 10:0.345938 11:-0.000904614 12:0.105118 
-4 1:0.628752 2:0.0235555 3:0.147244 4:0.298453 5:0.270301 6:-0.0544193 7:0.246786 8:-0.304565 9:0.219411 10:0.614846 11:0.0778973 12:0.135083 
-4 1:0.462138 2:0.383934 3:-0.0887674 4:0.261237 5:0.459749 6:0.157597 7:0.13791 8:-0.394437 9:0.425964 10:0.0777311 11:0.0302543 12:0.435455 
-3.173167338387521 1:0.658253 2:0.325549 3:0.520825 4:0.269937 5:0.359845 6:-0.337655 7:0.0680216 8:-0.17368 9:0.254666 10:-0.295518 11:-0.0626194 12:0.287307 
-4 1:0.417472 2:0.294141 3:0.0340766 4:0.0947318 5:0.280836 6:-0.105734 7:-0.0396101 8:-0.461127 9:0.246371 10:0.332633 11:-0.027641 12:0.373846 
-0.42391906861269052 1:0.733666 2:-0.354137 3:0.119058 4:0.384002 5:0.308401 6:-0.247443 7:0.164662 8:-0.485021 9:-0.102862 10:0.0322129 11:0.0230174 12:0.610212 
-1.3088574557107917 1:0.283889 2:0.431045 3:-0.479596 4:0.28347 5:0.547011 6:-0.586742 7:0.398382 8:-0.248217 9:-0.231439 10:0.563725 11:0.253191 12:-0.00659235 
-0.17060328647039072 1:0.650566 2:-0.267566 3:0.230963 4:0.289995 5:0.223071 6:-0.145362 7:0.0192866 8:-0.221469 9:0.22107 10:0.598039 11:-0.111871 12:0.117104 
-1.5188903014560002 1:0.341643 2:0.330783 3:-0.140934 4:0.258096 5:0.503292 6:-0.481556 7:0.180838 8:-0.191512 9:0.0497719 10:-0.0784314 11:0.0489496 12:0.239842 
-4 1:0.566012 2:0.111335 3:0.163231 4:0.347753 5:0.261873 6:0.236669 7:0.196392 8:-0.471113 9:0.367897 10:0.430672 11:0.110664 12:0.523433 
-0.33082550777795938 1:0.290953 2:0.403262 3:-0.0412284 4:0.294828 5:0.336845 6:-0.304054 7:0.132932 8:-0.303138 9:-0.159685 10:-0.0973389 11:0.0859383 12:0.436653 
-3.0860367888124385 1:0.568505 2:0.295752 3:0.378629 4:0.274529 5:0.265912 6:0.0220964 7:0.108876 8:-0.213267 9:0.461219 10:0.137255 11:-0.147653 12:0.323265 
-0.18581678202032823 1:0.606939 2:-0.251057 3:0.562894 4:0.32262 5:0.234132 6:0.106465 7:-0.103069 8:-0.358773 9:0.38905 10:0.262605 11:-0.136798 12:0.345559 
-0.92048343496416174 1:0.614418 2:-0.364204 3:0.761464 4:0.309328 5:0.103854 6:-0.222243 7:-1 8:-0.224679 9:0.434674 10:0.112045 11:-0.106644 12:0.401894 
-4 1:0.487068 2:0.60902 3:-0.0382836 4:0.242146 5:0.323501 6:-0.332359 7:0.0541269 8:-0.399429 9:0.0572377 10:0.186275 11:-0.0471404 12:0.170802 
-0.93889319491167533 1:0.597798 2:-0.189853 3:0.466975 4:0.105123 5:0.168642 6:0.105917 7:0.135006 8:-0.317047 9:0.274575 10:0.508403 11:-0.178008 12:0.361141 
-4 1:0.568505 2:0.341655 3:0.182583 4:0.263412 5:0.312088 6:0.233017 7:0.133969 8:-0.416548 9:0.320614 10:0.163866 11:-0.0151774 12:0.543809 
-4 1:0.550639 2:0.196296 3:0.0816155 4:0.19768 5:0.261873 6:0.0255661 7:0.0761095 8:-0.516405 9:0.0841974 10:0.236695 11:0.00613127 12:0.483879 
-1.5808107562581977 1:0.555833 2:-0.168512 3:0.57215 4:0.278879 5:0.331226 6:-0.0073046 7:0.119245 8:-0.0934379 9:0.683534 10:-0.380952 11:0.0393004 12:0.000359583 
-1.8862104798272707 1:0.457775 2:-0.503523 3:0.290703 4:0.248429 5:0.344044 6:-0.0613587 7:0.28287 8:-0.206847 9:0.248445 10:0.588936 11:0.534225 12:-0.200527 
-4 1:0.477303 2:0.344474 3:0.291965 4:0.321653 5:0.417084 6:-0.166362 7:0.195769 8:-0.142653 9:0.429282 10:0.0518207 11:0.0533722 12:0.213712 
-3.273283485317942 1:0.593435 2:-0.12583 3:0.253681 4:0.247946 5:0.371434 6:0.00858291 7:0.276856 8:-0.39622 9:0.304023 10:0.545518 11:0.0505578 12:0.379839 
-1.7796639179089815 1:0.592604 2:0.750755 3:0.372318 4:0.432093 5:0.678518 6:-0.558802 7:1 8:0.154779 9:0.363749 10:-0.169468 11:0.363152 12:-0.00419513 
-1.0080243265509623 1:0.605069 2:0.679887 3:0.298696 4:0.327695 5:0.57124 6:-0.212016 7:0.23061 8:-0.0463623 9:0.742845 10:-0.170168 11:0.211579 12:0.256143 
-4 1:0.601122 2:0.327159 3:0.477493 4:0.28057 5:0.314547 6:0.0306793 7:0.437163 8:-0.21291 9:0.322273 10:0.266807 11:0.134988 12:0.419633 
-4 1:0.418926 2:-0.0368432 3:0.241902 4:0.18898 5:0.301905 6:0.203981 7:0.165077 8:-0.512126 9:0.41518 10:0.231793 11:0.0489496 12:0.448879 
-1.4852978896999367 1:0.491638 2:0.447957 3:0.297854 4:0.258821 5:0.466772 6:-0.307706 7:0.266694 8:-0.130528 9:0.647034 10:-0.119048 11:0.0487486 12:0.0741939 
-0.38910454284917573 1:0.617326 2:-0.253876 3:0.454354 4:0.239246 5:0.169695 6:-0.0913075 7:0.0837827 8:-0.194365 9:0.119453 10:0.505602 11:-0.0618153 12:-0.0792281 
-1.3379994371038715 1:0.559364 2:-0.0477149 3:0.4817 4:0.38521 5:0.255904 6:0.175858 7:0.343633 8:-0.253923 9:0.399005 10:0.594538 11:0.0957885 12:0.296416 
-0.63727733034679257 1:0.50348 2:-0.125025 3:0.607068 4:0.748913 5:0.270652 6:1 7:0.50083 8:0.0338802 9:0.040647 10:-0.408964 11:0.45482 12:1 
-0.55107606761713812 1:0.63083 2:-0.530501 3:0.574253 4:0.251571 5:0.363181 6:-0.2416 7:-0.000414766 8:0.0274608 9:0.673579 10:0.313025 11:0.131772 12:-0.182548 
-4 1:0.533188 2:-0.0130864 3:0.666807 4:0.234654 5:0.27153 6:-0.0376187 7:0.177727 8:-0.262839 9:0.143509 10:0.0959384 11:0.0945824 12:0.171761 
-4 1:0.534434 2:0.355345 3:0.0765671 4:0.240696 5:0.298393 6:-0.22973 7:0.207175 8:-0.329173 9:0.00995438 10:0.121148 11:0.00492512 12:0.333333 
-0.733608401580223 1:-0.0404072 2:-0.166499 3:-0.0336559 4:0.423151 5:0.203406 6:0.0752374 7:0.173994 8:-0.664408 9:-0.537536 10:-0.686275 11:0.195497 12:0.536138 
-0.92852531032289909 1:0.302586 2:0.147977 3:0.00673117 4:0.343886 5:0.202353 6:-0.289993 7:0.10618 8:-0.418688 9:-0.544587 10:-0.42577 11:-0.202131 12:0.584562 
-4 1:0.642672 2:0.0553654 3:0.182583 4:0.254229 5:0.221491 6:0.0356099 7:0.0833679 8:-0.377318 9:-0.0962256 10:0.443277 11:-0.147251 12:0.339806 
-0.79193186092812728 1:0.386725 2:0.166902 3:0.549011 4:-1 5:0.428672 6:-0.617239 7:0.403982 8:-0.046719 9:0.366653 10:0.537815 11:0.051764 12:-0.0346398 
-4 1:0.643087 2:-0.224482 3:0.259571 4:0.278395 5:0.140374 6:0.404492 7:0.230817 8:-0.499643 9:0.297387 10:0.418768 11:-0.0545783 12:0.570658 
-4 1:0.593851 2:0.360177 3:0.175431 4:0.270904 5:0.407602 6:-0.395727 7:0.205724 8:-0.175464 9:0.171713 10:0.413866 11:0.0565886 12:0.195014 
-0.090943974370149325 1:0.552716 2:0.384739 3:0.169541 4:0.10029 5:0.295584 6:-0.0619065 7:0.284114 8:-0.324893 9:0.315637 10:0.421569 11:-0.0483466 12:0.404531 
-4 1:0.510959 2:0.0155023 3:0.201935 4:0.161189 5:0.405847 6:-0.281045 7:0.228121 8:-0.200428 9:0.23061 10:0.392157 11:0.0857373 12:0.0317632 
-0.72738999827681561 1:0.172328 2:0.689551 3:0.075305 4:0.441518 5:0.320165 6:-0.215121 7:0.249274 8:-0.28067 9:-0.1854 10:-0.97549 11:-0.0485476 12:0.449359 
-4 1:0.493092 2:0.562311 3:0.0185107 4:0.306912 5:0.419542 6:-0.151936 7:0.169017 8:-0.238944 9:0.259229 10:0.0840336 11:0.0288471 12:0.265013 
-1.6322555526783766 1:0.465877 2:0.6364 3:-0.111064 4:0.224021 5:0.288561 6:0.178415 7:0.223559 8:-0.486448 9:0.189963 10:0.328431 11:0.108051 12:0.580726 
-0.76097792766720818 1:0.331048 2:0.482988 3:0.254102 4:0.215805 5:0.454657 6:-0.478086 7:0.571962 8:-0.158702 9:0.128992 10:-0.107143 11:0.31571 12:0.0955292 
-0.78846568532833794 1:0.718085 2:0.015905 3:0.755574 4:0.645964 5:0.339654 6:0.869795 7:0.211116 8:-0.201498 9:0.131066 10:0.466387 11:0.173987 12:0.773223 
-1.232530724274493 1:0.110834 2:-0.127844 3:0.118637 4:0.499275 5:0.0211571 6:-0.315194 7:0.191207 8:-0.10699 9:-0.179179 10:-0.831933 11:-0.280933 12:-0.1032 
-2.5625270042955512 1:0.53942 2:0.192672 3:-0.075305 4:0.285887 5:0.222369 6:0.109752 7:0.0275819 8:-0.416548 9:-0.125259 10:0.161064 11:-0.21761 12:0.575692 
-0.095274897924668631 1:0.34476 2:0.796658 3:-0.119478 4:0.125181 5:0.426565 6:0.375822 7:0.506636 8:-0.264622 9:0.431771 10:-0.27521 11:0.230475 12:0.531344 
-0.92476073573863105 1:0.513452 2:0.615462 3:0.470341 4:0.462301 5:0.565798 6:0.00310446 7:0.802779 8:-0.046719 9:0.652426 10:-0.633053 11:0.124736 12:0.487235 
-0.63731751345859688 1:0.562273 2:-0.248641 3:0.302903 4:0.258821 5:0.30647 6:-0.0918554 7:0.410411 8:-0.280314 9:0.0111987 10:0.433473 11:0.0485476 12:-0.107515 
-3.2145442045149766 1:0.531318 2:0.417757 3:0.19268 4:0.269454 5:0.285752 6:0.0113221 7:0.265657 8:-0.342368 9:0.235587 10:0.378151 11:-0.0173887 12:0.408846 
-3.4421388659083587 1:0.512205 2:0.207973 3:0.0513252 4:0.223296 5:0.336669 6:0.184441 7:0.351514 8:-0.252853 9:0.484032 10:0.254902 11:-0.091969 12:0.426585 
-0.4407547202387046 1:0.424951 2:-0.281256 3:0.50021 4:0.164089 5:0.391274 6:0.123448 7:0.183119 8:-0.336662 9:0.318125 10:0.211485 11:0.00512614 12:0.375524 
-1.9162679133266467 1:0.519476 2:0.28327 3:0.167017 4:0.224263 5:0.319638 6:-0.388422 7:0.168187 8:-0.344151 9:-0.1236 10:-0.186275 11:-0.14323 12:0.39614 
-4 1:0.533396 2:-0.226898 3:0.503997 4:0.159014 5:0.318058 6:0.140979 7:0.197843 8:-0.242867 9:0.202406 10:0.268908 11:0.109458 12:0.370011 
-0.6543090299667913 1:0.733873 2:-0.258707 3:0.863694 4:0.321653 5:0.324379 6:-0.405953 7:0.386769 8:0.170114 9:0.774367 10:0.176471 11:0.251382 12:-0.390867 
-1.4160720533207805 1:0.48686 2:0.639219 3:0.30122 4:0.154664 5:0.689931 6:-0.526114 7:0.815015 8:0.144793 9:0.332227 10:-0.320028 11:0.432305 12:0.0161812 
-0.11597022499336182 1:0.495793 2:-1 3:0.191418 4:0.0347994 5:0.0901589 6:-0.244522 7:0.133762 8:-0.302425 9:0.170469 10:0.77591 11:-0.156498 12:0.0202565 
-2.108983025271661 1:0.55147 2:0.147574 3:0.16239 4:0.259787 5:0.356861 6:-0.233199 7:0.182082 8:-0.466833 9:0.384903 10:0.195378 11:0.471907 12:0.447681 
-0.50114997714515419 1:-1 2:-0.0444937 3:0.754312 4:0.257129 5:0.46449 6:-0.780497 7:0.448984 8:-0.0970043 9:0.538366 10:0.745098 11:0.099407 12:0.0387151 
-4 1:0.559988 2:-0.145561 3:0.647034 4:0.263896 5:0.344044 6:0.104273 7:0.050394 8:-0.162981 9:0.463293 10:0.277311 11:0.00633229 12:0.338128 
-0.078430542041175902 1:0.341228 2:0.814375 3:0.0424905 4:0.344369 5:0.48275 6:-0.192841 7:0.0690585 8:-0.132311 9:0.525923 10:-0.186975 11:0.1177 12:0.0495026 
-4 1:0.594266 2:-0.0891886 3:0.571729 4:0.171822 5:0.337723 6:0.249087 7:0.17192 8:-0.190086 9:0.388221 10:0.167367 11:0.10383 12:0.492748 
-0.37110194136446678 1:0.733458 2:-0.683914 3:0.575936 4:0.31972 5:0.0622421 6:0.179328 7:0.132725 8:-0.305635 9:0.572377 10:0.0105042 11:-0.161725 12:0.231452 
